{
  "regime_type": "volatile",
  "training_config": {
    "population_size": 50,
    "generations": 50,
    "mutation_rate": 0.15,
    "crossover_rate": 0.7,
    "elite_size": 10,
    "tournament_size": 5
  },
  "best_genome": [
    0.02766871012838784,
    0.043443864421399504,
    0.03232264282769194,
    0.7353038659205546,
    0.4791401841360015,
    4.028161225900988,
    1.3218526516545706,
    0.8328850560530031
  ],
  "best_fitness": -0.41748235344503704,
  "final_metrics": {
    "total_return": -0.011928067241286772,
    "sharpe_ratio": 0.0,
    "win_rate": 0.0,
    "max_drawdown": 0.011928067241286772,
    "num_trades": 1,
    "avg_trade_return": -0.11928067241286838,
    "profit_factor": 0.0,
    "fitness": -0.41748235344503704
  },
  "bounds": {
    "stop_loss": [
      0.01,
      0.03
    ],
    "take_profit": [
      0.03,
      0.1
    ],
    "position_size": [
      0.02,
      0.05
    ],
    "entry_threshold": [
      0.5,
      0.8
    ],
    "exit_threshold": [
      0.3,
      0.6
    ],
    "max_hold_time": [
      1,
      5
    ],
    "volatility_scaling": [
      0.8,
      1.5
    ],
    "momentum_weight": [
      0.6,
      0.9
    ]
  },
  "training_history": {
    "generation": [
      0,
      1,
      2,
      3,
      4,
      5,
      6,
      7,
      8,
      9,
      10,
      11,
      12,
      13,
      14,
      15,
      16,
      17,
      18,
      19,
      20,
      21,
      22,
      23,
      24,
      25,
      26,
      27,
      28,
      29,
      30,
      31,
      32,
      33,
      34,
      35,
      36,
      37,
      38,
      39,
      40,
      41,
      42,
      43,
      44,
      45,
      46,
      47,
      48,
      49
    ],
    "best_fitness": [
      -0.41748235344503704,
      -0.41748235344503704,
      -0.41748235344503704,
      -0.41748235344503704,
      -0.41748235344503704,
      -0.41748235344503704,
      -0.41748235344503704,
      -0.41748235344503704,
      -0.41748235344503704,
      -0.41748235344503704,
      -0.41748235344503704,
      -0.41748235344503704,
      -0.41748235344503704,
      -0.41748235344503704,
      -0.41748235344503704,
      -0.41748235344503704,
      -0.41748235344503704,
      -0.41748235344503704,
      -0.41748235344503704,
      -0.41748235344503704,
      -0.41748235344503704,
      -0.41748235344503704,
      -0.41748235344503704,
      -0.41748235344503704,
      -0.41748235344503704,
      -0.41748235344503704,
      -0.41748235344503704,
      -0.41748235344503704,
      -0.41748235344503704,
      -0.41748235344503704,
      -0.41748235344503704,
      -0.41748235344503704,
      -0.41748235344503704,
      -0.41748235344503704,
      -0.41748235344503704,
      -0.41748235344503704,
      -0.41748235344503704,
      -0.41748235344503704,
      -0.41748235344503704,
      -0.41748235344503704,
      -0.41748235344503704,
      -0.41748235344503704,
      -0.41748235344503704,
      -0.41748235344503704,
      -0.41748235344503704,
      -0.41748235344503704,
      -0.41748235344503704,
      -0.41748235344503704,
      -0.41748235344503704,
      -0.41748235344503704
    ],
    "avg_fitness": [
      -320.66391019808094,
      -63.550683689842664,
      -8.704678808067316,
      -25.27907171731187,
      -8.704678808067316,
      -8.704678808067316,
      -0.41748235344503704,
      -0.41748235344503704,
      -0.41748235344503704,
      -25.27907171731187,
      -0.41748235344503704,
      -0.41748235344503704,
      -8.704678808067316,
      -8.704678808067316,
      -8.704678808067316,
      -16.991875262689593,
      -0.41748235344503704,
      -0.41748235344503704,
      -8.704678808067316,
      -0.41748235344503704,
      -0.41748235344503704,
      -8.704678808067316,
      -0.41748235344503704,
      -0.41748235344503704,
      -8.704678808067316,
      -0.41748235344503704,
      -16.991875262689597,
      -0.41748235344503704,
      -0.41748235344503704,
      -0.41748235344503704,
      -0.41748235344503704,
      -8.704678808067316,
      -0.41748235344503704,
      -0.41748235344503704,
      -8.704678808067316,
      -0.41748235344503704,
      -0.41748235344503704,
      -8.704678808067316,
      -0.41748235344503704,
      -0.41748235344503704,
      -0.41748235344503704,
      -0.41748235344503704,
      -0.41748235344503704,
      -16.991875262689597,
      -16.991875262689593,
      -0.41748235344503704,
      -0.41748235344503704,
      -0.41748235344503704,
      -0.41748235344503704,
      -0.41748235344503704
    ],
    "diversity": [
      0.20085237488314261,
      0.1697789168560465,
      0.15828308987161935,
      0.1684487704097572,
      0.1614122685265755,
      0.1554597749033622,
      0.1519283265175979,
      0.1457050389925602,
      0.1419121086524151,
      0.14327926342680986,
      0.14239500986516526,
      0.14547709383835306,
      0.142289041406684,
      0.13848265133775203,
      0.14820770555537535,
      0.14704295612674106,
      0.14692728705617616,
      0.14692159384935682,
      0.15412061549292,
      0.15514681219181467,
      0.15111197123700904,
      0.15690589108916322,
      0.15971888512061433,
      0.16368348661627005,
      0.16161746134164534,
      0.16198144196505987,
      0.16484003394398858,
      0.14783770757452155,
      0.1512086410538631,
      0.1540964129625771,
      0.14484784726765,
      0.13765558168529968,
      0.12431935569841994,
      0.11520889906733117,
      0.12997074222571547,
      0.13419133058497973,
      0.1413369903141912,
      0.14260244163915947,
      0.14056047216548,
      0.14028526650342724,
      0.1416872761287917,
      0.1078097744463582,
      0.10378939654179928,
      0.09309042016658253,
      0.08703859006160798,
      0.0905375008396367,
      0.09625665149293818,
      0.09980916752971424,
      0.10256205125057212,
      0.09812883137208996
    ]
  },
  "timestamp": "2025-11-05T18:10:18.436492"
}