{
  "regime_type": "ranging",
  "training_config": {
    "population_size": 200,
    "generations": 300,
    "mutation_rate": 0.1,
    "crossover_rate": 0.7,
    "elite_size": 10,
    "tournament_size": 5
  },
  "best_genome": [
    0.022467091094696533,
    0.046503967387319434,
    0.03888563363119958,
    0.5184970436130327,
    0.4392522632481508,
    3.2165595153843753,
    0.9514721551812084,
    0.2
  ],
  "best_fitness": 1.107938358830139,
  "final_metrics": {
    "total_return": -0.05629194258803109,
    "sharpe_ratio": -0.12147031422490069,
    "win_rate": 0.49168207024029575,
    "max_drawdown": 0.12394874166427296,
    "num_trades": 541,
    "avg_trade_return": -0.0010815341518514,
    "profit_factor": 0.9497670422007943,
    "fitness": 1.107938358830139
  },
  "bounds": {
    "stop_loss": [
      0.02,
      0.04
    ],
    "take_profit": [
      0.03,
      0.08
    ],
    "position_size": [
      0.03,
      0.07
    ],
    "entry_threshold": [
      0.4,
      0.7
    ],
    "exit_threshold": [
      0.3,
      0.6
    ],
    "max_hold_time": [
      2,
      7
    ],
    "volatility_scaling": [
      0.5,
      1.2
    ],
    "momentum_weight": [
      0.2,
      0.5
    ]
  },
  "training_history": {
    "generation": [
      0,
      1,
      2,
      3,
      4,
      5,
      6,
      7,
      8,
      9,
      10,
      11,
      12,
      13,
      14,
      15,
      16,
      17,
      18,
      19,
      20,
      21,
      22,
      23,
      24,
      25,
      26,
      27,
      28,
      29,
      30,
      31,
      32,
      33,
      34,
      35,
      36,
      37,
      38,
      39,
      40,
      41,
      42,
      43,
      44,
      45,
      46,
      47,
      48,
      49,
      50,
      51,
      52,
      53,
      54,
      55,
      56,
      57,
      58,
      59,
      60,
      61,
      62,
      63,
      64,
      65,
      66,
      67,
      68,
      69,
      70,
      71,
      72,
      73,
      74,
      75,
      76,
      77,
      78,
      79,
      80,
      81,
      82,
      83,
      84,
      85,
      86,
      87,
      88,
      89,
      90,
      91,
      92,
      93,
      94,
      95,
      96,
      97,
      98,
      99,
      100,
      101,
      102,
      103,
      104,
      105,
      106,
      107,
      108,
      109,
      110,
      111,
      112,
      113,
      114,
      115,
      116,
      117,
      118,
      119,
      120,
      121,
      122,
      123,
      124,
      125,
      126,
      127,
      128,
      129,
      130,
      131,
      132,
      133,
      134,
      135,
      136,
      137,
      138,
      139,
      140,
      141,
      142,
      143,
      144,
      145,
      146,
      147,
      148,
      149,
      150,
      151,
      152,
      153,
      154,
      155,
      156,
      157,
      158,
      159,
      160,
      161,
      162,
      163,
      164,
      165,
      166,
      167,
      168,
      169,
      170,
      171,
      172,
      173,
      174,
      175,
      176,
      177,
      178,
      179,
      180,
      181,
      182,
      183,
      184,
      185,
      186,
      187,
      188,
      189,
      190,
      191,
      192,
      193,
      194,
      195,
      196,
      197,
      198,
      199,
      200,
      201,
      202,
      203,
      204,
      205,
      206,
      207,
      208,
      209,
      210,
      211,
      212,
      213,
      214,
      215,
      216,
      217,
      218,
      219,
      220,
      221,
      222,
      223,
      224,
      225,
      226,
      227,
      228,
      229,
      230,
      231,
      232,
      233,
      234,
      235,
      236,
      237,
      238,
      239,
      240,
      241,
      242,
      243,
      244,
      245,
      246,
      247,
      248,
      249,
      250,
      251,
      252,
      253,
      254,
      255,
      256,
      257,
      258,
      259,
      260,
      261,
      262,
      263,
      264,
      265,
      266,
      267,
      268,
      269,
      270,
      271,
      272,
      273,
      274,
      275,
      276,
      277,
      278,
      279,
      280,
      281,
      282,
      283,
      284,
      285,
      286,
      287,
      288,
      289,
      290,
      291,
      292,
      293,
      294,
      295,
      296,
      297,
      298,
      299
    ],
    "best_fitness": [
      -3.1722345869020057,
      -1.6164037492006136,
      -1.349884310656492,
      -1.2926873800754257,
      -0.9864481239129366,
      -0.7386098505988441,
      -0.523737496941775,
      -0.00174625676725082,
      0.055727989869845285,
      0.17680629258979685,
      0.2813691499483939,
      0.39487813791450943,
      0.43628626826152406,
      0.6104128056798386,
      0.6614682252387531,
      0.679703233481117,
      0.8909558839069616,
      0.8968247883025182,
      0.9103877701131549,
      0.9167569747254645,
      0.9167569747254645,
      0.9167569747254645,
      0.9167569747254645,
      0.9167569747254645,
      0.9167569747254645,
      0.9167569747254645,
      1.107938358830139,
      1.107938358830139,
      1.107938358830139,
      1.107938358830139,
      1.107938358830139,
      1.107938358830139,
      1.107938358830139,
      1.107938358830139,
      1.107938358830139,
      1.107938358830139,
      1.107938358830139,
      1.107938358830139,
      1.107938358830139,
      1.107938358830139,
      1.107938358830139,
      1.107938358830139,
      1.107938358830139,
      1.107938358830139,
      1.107938358830139,
      1.107938358830139,
      1.107938358830139,
      1.107938358830139,
      1.107938358830139,
      1.107938358830139,
      1.107938358830139,
      1.107938358830139,
      1.107938358830139,
      1.107938358830139,
      1.107938358830139,
      1.107938358830139,
      1.107938358830139,
      1.107938358830139,
      1.107938358830139,
      1.107938358830139,
      1.107938358830139,
      1.107938358830139,
      1.107938358830139,
      1.107938358830139,
      1.107938358830139,
      1.107938358830139,
      1.107938358830139,
      1.107938358830139,
      1.107938358830139,
      1.107938358830139,
      1.107938358830139,
      1.107938358830139,
      1.107938358830139,
      1.107938358830139,
      1.107938358830139,
      1.107938358830139,
      1.107938358830139,
      1.107938358830139,
      1.107938358830139,
      1.107938358830139,
      1.107938358830139,
      1.107938358830139,
      1.107938358830139,
      1.107938358830139,
      1.107938358830139,
      1.107938358830139,
      1.107938358830139,
      1.107938358830139,
      1.107938358830139,
      1.107938358830139,
      1.107938358830139,
      1.107938358830139,
      1.107938358830139,
      1.107938358830139,
      1.107938358830139,
      1.107938358830139,
      1.107938358830139,
      1.107938358830139,
      1.107938358830139,
      1.107938358830139,
      1.107938358830139,
      1.107938358830139,
      1.107938358830139,
      1.107938358830139,
      1.107938358830139,
      1.107938358830139,
      1.107938358830139,
      1.107938358830139,
      1.107938358830139,
      1.107938358830139,
      1.107938358830139,
      1.107938358830139,
      1.107938358830139,
      1.107938358830139,
      1.107938358830139,
      1.107938358830139,
      1.107938358830139,
      1.107938358830139,
      1.107938358830139,
      1.107938358830139,
      1.107938358830139,
      1.107938358830139,
      1.107938358830139,
      1.107938358830139,
      1.107938358830139,
      1.107938358830139,
      1.107938358830139,
      1.107938358830139,
      1.107938358830139,
      1.107938358830139,
      1.107938358830139,
      1.107938358830139,
      1.107938358830139,
      1.107938358830139,
      1.107938358830139,
      1.107938358830139,
      1.107938358830139,
      1.107938358830139,
      1.107938358830139,
      1.107938358830139,
      1.107938358830139,
      1.107938358830139,
      1.107938358830139,
      1.107938358830139,
      1.107938358830139,
      1.107938358830139,
      1.107938358830139,
      1.107938358830139,
      1.107938358830139,
      1.107938358830139,
      1.107938358830139,
      1.107938358830139,
      1.107938358830139,
      1.107938358830139,
      1.107938358830139,
      1.107938358830139,
      1.107938358830139,
      1.107938358830139,
      1.107938358830139,
      1.107938358830139,
      1.107938358830139,
      1.107938358830139,
      1.107938358830139,
      1.107938358830139,
      1.107938358830139,
      1.107938358830139,
      1.107938358830139,
      1.107938358830139,
      1.107938358830139,
      1.107938358830139,
      1.107938358830139,
      1.107938358830139,
      1.107938358830139,
      1.107938358830139,
      1.107938358830139,
      1.107938358830139,
      1.107938358830139,
      1.107938358830139,
      1.107938358830139,
      1.107938358830139,
      1.107938358830139,
      1.107938358830139,
      1.107938358830139,
      1.107938358830139,
      1.107938358830139,
      1.107938358830139,
      1.107938358830139,
      1.107938358830139,
      1.107938358830139,
      1.107938358830139,
      1.107938358830139,
      1.107938358830139,
      1.107938358830139,
      1.107938358830139,
      1.107938358830139,
      1.107938358830139,
      1.107938358830139,
      1.107938358830139,
      1.107938358830139,
      1.107938358830139,
      1.107938358830139,
      1.107938358830139,
      1.107938358830139,
      1.107938358830139,
      1.107938358830139,
      1.107938358830139,
      1.107938358830139,
      1.107938358830139,
      1.107938358830139,
      1.107938358830139,
      1.107938358830139,
      1.107938358830139,
      1.107938358830139,
      1.107938358830139,
      1.107938358830139,
      1.107938358830139,
      1.107938358830139,
      1.107938358830139,
      1.107938358830139,
      1.107938358830139,
      1.107938358830139,
      1.107938358830139,
      1.107938358830139,
      1.107938358830139,
      1.107938358830139,
      1.107938358830139,
      1.107938358830139,
      1.107938358830139,
      1.107938358830139,
      1.107938358830139,
      1.107938358830139,
      1.107938358830139,
      1.107938358830139,
      1.107938358830139,
      1.107938358830139,
      1.107938358830139,
      1.107938358830139,
      1.107938358830139,
      1.107938358830139,
      1.107938358830139,
      1.107938358830139,
      1.107938358830139,
      1.107938358830139,
      1.107938358830139,
      1.107938358830139,
      1.107938358830139,
      1.107938358830139,
      1.107938358830139,
      1.107938358830139,
      1.107938358830139,
      1.107938358830139,
      1.107938358830139,
      1.107938358830139,
      1.107938358830139,
      1.107938358830139,
      1.107938358830139,
      1.107938358830139,
      1.107938358830139,
      1.107938358830139,
      1.107938358830139,
      1.107938358830139,
      1.107938358830139,
      1.107938358830139,
      1.107938358830139,
      1.107938358830139,
      1.107938358830139,
      1.107938358830139,
      1.107938358830139,
      1.107938358830139,
      1.107938358830139,
      1.107938358830139,
      1.107938358830139,
      1.107938358830139,
      1.107938358830139,
      1.107938358830139,
      1.107938358830139,
      1.107938358830139,
      1.107938358830139,
      1.107938358830139,
      1.107938358830139,
      1.107938358830139,
      1.107938358830139,
      1.107938358830139,
      1.107938358830139,
      1.107938358830139,
      1.107938358830139,
      1.107938358830139,
      1.107938358830139,
      1.107938358830139,
      1.107938358830139,
      1.107938358830139,
      1.107938358830139,
      1.107938358830139,
      1.107938358830139,
      1.107938358830139,
      1.107938358830139,
      1.107938358830139,
      1.107938358830139,
      1.107938358830139,
      1.107938358830139
    ],
    "avg_fitness": [
      -12.947608892128473,
      -8.81077737624346,
      -6.999035984912832,
      -4.916789228197127,
      -3.2855219718289335,
      -2.797898273959933,
      -2.336414982063285,
      -2.243088742473433,
      -1.9951998855418638,
      -1.6653133707381804,
      -1.194134033469057,
      -1.082548856077188,
      -0.9494795154244459,
      -0.8552856847726595,
      -1.1054964338211832,
      -0.7766505403046429,
      -0.727606753192714,
      -0.44369492674253747,
      -0.8015313952787109,
      -0.6893961617452389,
      -0.06679860423637099,
      -0.7093182812609468,
      -0.5840778452605199,
      -0.792719556230165,
      -0.4977545023937913,
      -0.4616274132891206,
      -0.37997357416440053,
      -0.5336038910192685,
      -0.6154627866190373,
      -0.3573389593273679,
      -0.12360652007036715,
      -0.28079672857932975,
      0.02482034070915809,
      -0.515563349964121,
      -0.12029987533094447,
      -0.4933371356374003,
      -0.8722269071872539,
      -0.5979991727518553,
      0.23309737088245158,
      -0.45522365794597647,
      -0.25250716029893133,
      -0.45175613632857275,
      -0.2582434657455368,
      -0.5487200007428329,
      -0.2301694600062281,
      0.14548792663313545,
      -0.6116979018306775,
      -0.31933947853343253,
      -0.7597735199550708,
      -0.5315722729457723,
      0.04074778690123608,
      -0.27110675451856225,
      -0.09810110645439395,
      -0.0614862912473217,
      -0.37533057565656014,
      -0.10214536902852053,
      -0.1989116347818191,
      -0.540681155190298,
      -0.15494736202234238,
      -0.5539723243054355,
      -0.29557880356222355,
      0.002310365907868901,
      -0.3337508360354373,
      0.15524644071401644,
      -0.5695758186788382,
      -0.3517005239498098,
      -0.3955614672861107,
      -0.1188927026811948,
      0.22660917693422186,
      -0.5467075451867333,
      0.13434562343687076,
      -0.25999757942599533,
      -0.3585639463402457,
      -0.15306876346270473,
      -0.20257383532275136,
      -0.43049509091661087,
      -0.0116215149877792,
      -0.09252490432597636,
      -0.2023459252467032,
      -0.1020380429923316,
      -0.4119684452282277,
      -0.23381699472790246,
      -0.21483302635477947,
      -0.26127306224197755,
      -0.08716332524899066,
      -0.3853756156108497,
      -0.3591121446174261,
      -0.5959965124976592,
      -0.3884902910988684,
      -0.44557551398187856,
      -0.11364673822257146,
      -0.20494959741393332,
      -0.19125389406833115,
      -0.3441781660489496,
      -0.34280653150659246,
      -0.47322993422535803,
      -0.25451284400822904,
      -0.4131496648973372,
      -0.3819482769158635,
      -0.2732715722741182,
      -0.4790800859546864,
      -0.34687845597709677,
      -0.16588907774557843,
      -0.2582952995928169,
      -0.2655363143695151,
      -0.44500140567184887,
      -0.17631797484125367,
      -0.19888574107764195,
      -0.02001883421055414,
      -0.5311179370134239,
      -0.42360393533158586,
      -0.06101006614081074,
      -0.5260693388527132,
      -0.17639907898134186,
      -0.035979775735104184,
      -0.1505649131124375,
      -0.2428397408557082,
      -0.32247113223209267,
      -0.38781196354428554,
      0.04862040145290582,
      -0.1885742779421458,
      -0.10656415037560371,
      -0.7512055155417418,
      -0.04025761156576758,
      -0.5937412294951259,
      -0.34714076964695084,
      -0.06752075669708256,
      -0.29999945043907844,
      -0.0797121470336526,
      -0.0590366965120478,
      -0.18299008434763625,
      -0.6782422148758226,
      -0.5181607269818094,
      -0.5177511001567344,
      -0.27751632115846403,
      -0.14164003062921698,
      -0.04728501603437443,
      -0.14575422065562516,
      -0.40495384051636796,
      -0.4013027857500633,
      -0.05405075204173795,
      -0.10352695305165804,
      -0.12484584336475735,
      -0.39299606071528514,
      -0.5100657737524295,
      -0.2364569079610683,
      -0.7249067740486574,
      -0.31479021984908306,
      -0.4203408074019231,
      -0.22642004564374282,
      0.033341174894450806,
      -0.10046891367202662,
      -0.5482230013905733,
      -0.49197695160885296,
      -0.3703258157673044,
      -0.6247731299568211,
      -0.7439926008566127,
      -0.017225279514275035,
      -0.13615484971966776,
      -0.2538342568210488,
      -0.3738669841035903,
      -0.5984835508741759,
      -0.12544705466683553,
      -0.3932146339636817,
      -0.36280132907908924,
      -0.3788065869136065,
      -0.6366646855224402,
      -0.1574398133541285,
      -0.3939765282836871,
      -0.3562778514040664,
      -0.5285136336228865,
      -0.6984830101353614,
      -0.09282082416234008,
      -0.4351936870444934,
      -0.30578955969474764,
      -0.2118193250033163,
      -0.18443101188434022,
      -0.26986534274891083,
      -0.6980936162396432,
      0.13788547501055295,
      -0.13287474850107273,
      -0.2546102578275154,
      -0.30503508655131445,
      0.017581587860929292,
      -0.33125206560060677,
      -0.05936253629584799,
      -0.5317215812970345,
      -0.2167135925952658,
      -0.6592159009213532,
      -0.3119172420339671,
      -0.3512233034539918,
      -0.10258356517344147,
      -0.30351371529319643,
      -0.17573687392402398,
      -0.3138619259025451,
      -0.3184186641614567,
      -0.4716757862575547,
      -0.13023917582959615,
      -0.5736236752660929,
      0.14345117724396772,
      -0.4973605181981248,
      -0.30169936801063135,
      -0.32303493156423213,
      -0.5493617635023186,
      -0.3954041535293688,
      -0.19039184661973838,
      -0.15838457653009758,
      -0.31511225875470555,
      -0.190786605415571,
      -0.2470894622255077,
      -0.43479625475922257,
      -0.4503083451242478,
      -0.2694586695095821,
      -0.2763504097291558,
      -0.3075946976192043,
      -0.1358637593165428,
      -0.4790275851875424,
      -0.24685514291322141,
      -0.3904061664553275,
      -0.11010294903979345,
      -0.011221706041663353,
      -0.2835587389543296,
      -0.08739322318281939,
      -0.31064911481342977,
      -0.03344550779521411,
      -0.5879922916932953,
      -0.22273939716289795,
      -0.7473885763872492,
      0.025068659945089652,
      0.18275081846655425,
      -0.5330828579780856,
      -0.4929644781057563,
      -0.43812088814664046,
      -0.7165503428829314,
      0.23683640120327198,
      -0.21501170629836422,
      -0.33433451552551247,
      -0.42207066066463694,
      -0.008328511004780222,
      -0.08488936394781581,
      -0.37133105948676376,
      0.09054567507004212,
      -0.07600577287809727,
      -0.1547689587951025,
      -0.2692060308605,
      -0.5763235758439914,
      -0.6155716237092812,
      -0.18481276440131453,
      -0.527950165302809,
      -0.32374804093188,
      -0.13195267163257957,
      -0.03962052528578585,
      -0.30549515830367385,
      -0.28138601130153235,
      -0.15858596919381662,
      -0.41797751355151624,
      0.09041323441390746,
      -0.09626829349591862,
      -0.20129904878293886,
      -0.4301117525413789,
      -0.37426050014732526,
      0.011505264600434044,
      -0.15176906357320685,
      -0.21381082322073738,
      -0.525437021169231,
      -0.09907610783091166,
      -0.1912485585890188,
      -0.03909830568115855,
      -0.3655767828041116,
      -0.20176901132942046,
      -0.30596634162769043,
      -0.26831421305829223,
      -0.0061142837798414985,
      -0.11569776414957639,
      -0.21279272257207993,
      -0.40612129170388156,
      0.157380661435237,
      0.0035427863851985996,
      -0.2573419165822568,
      -0.3621754084349902,
      -0.2511429828952248,
      -0.5362047448742943,
      -0.4256892230971164,
      0.11601880809528808,
      -0.0628986249390071,
      -0.08133652735653776,
      -0.3935081728624325,
      -0.3311121049274744,
      -0.19278462315077893,
      -0.18073733153097124,
      -0.24974767416442195,
      -0.08763423382833901,
      -0.3032256772032783,
      -0.4312923481276624,
      -0.19292482266680794,
      -0.659759821060248,
      -0.1967728716394805,
      -0.5341504827450899,
      -0.20465391591735393,
      -0.48682135238163554
    ],
    "diversity": [
      0.24205845943302975,
      0.19260326498581343,
      0.17070776633538334,
      0.13403443330437276,
      0.08163519391293275,
      0.05464366216269549,
      0.05596486013429752,
      0.04980533062057404,
      0.051194796990326294,
      0.05459908534704148,
      0.049097168902684354,
      0.048568400998820954,
      0.05044655507714117,
      0.049059135478359585,
      0.04969854894512523,
      0.04176359229585667,
      0.046966560696280954,
      0.04914497674598344,
      0.05196454234423563,
      0.052225177675276534,
      0.04765009845825593,
      0.053448246770854344,
      0.05546711806186847,
      0.053346952585495405,
      0.05675008312846721,
      0.056431501654381,
      0.05202377815974394,
      0.051441984312431556,
      0.050717740170301,
      0.044954106329567686,
      0.036214555775425324,
      0.03934692438429932,
      0.03702647937283635,
      0.04195003775349664,
      0.04525378507249768,
      0.04342932783206097,
      0.052125287154619795,
      0.04644581393228392,
      0.04807030909077164,
      0.05161751681358952,
      0.049759912351744796,
      0.05085059427557481,
      0.049114678863617096,
      0.05073594784211415,
      0.04752865832065783,
      0.04536377559051305,
      0.050794470128342914,
      0.04796976532027096,
      0.05160204415366289,
      0.050007249523277904,
      0.0476231429961255,
      0.052078384519273345,
      0.05072862650334182,
      0.053450213889862076,
      0.05613105999821626,
      0.054627184807675665,
      0.055561068733053054,
      0.0560752297299501,
      0.05397499238444558,
      0.05923975296244482,
      0.05557884200278692,
      0.055200408453857326,
      0.05574888324907275,
      0.05465946713739686,
      0.0576506856635869,
      0.052206004525671604,
      0.05784908408333276,
      0.05516673260141369,
      0.05822586495220742,
      0.06273762566120758,
      0.054706706767229725,
      0.06043239525807692,
      0.0647223209411226,
      0.062396100966894165,
      0.06527672475618398,
      0.06352163028751817,
      0.05931570713753258,
      0.0595518685646298,
      0.05975318483437766,
      0.06091716694112394,
      0.0610841032471213,
      0.059839652977362184,
      0.06111995121817802,
      0.05758755021388234,
      0.0592509189332893,
      0.05980972322457911,
      0.06204522380368825,
      0.061220650373101364,
      0.06340972452806432,
      0.060109217970827425,
      0.06425559532718546,
      0.06097836154800628,
      0.060409751130420505,
      0.06385362163076677,
      0.06071861975968999,
      0.059821645431422724,
      0.060639078112267986,
      0.06066517148866238,
      0.05550227716284738,
      0.05570686080031773,
      0.06006423669048098,
      0.057210789397784914,
      0.061791769474569026,
      0.05891678123086294,
      0.05296852404787191,
      0.05887782610933223,
      0.05949913516854498,
      0.056868845569007544,
      0.06070386764087362,
      0.05865617547174773,
      0.06393435287522925,
      0.062436656989249384,
      0.06287039772816486,
      0.06371422808443569,
      0.06341988137502733,
      0.06482550671432281,
      0.07194956367987461,
      0.06800591677105788,
      0.07443230513398182,
      0.06162991488948881,
      0.059881755372867634,
      0.06218873202834242,
      0.06528009460733698,
      0.06795843811949503,
      0.06822442801873198,
      0.07434336702851248,
      0.06889497898064258,
      0.06829272402918118,
      0.07272995400181485,
      0.06835475009597794,
      0.06679569001750243,
      0.06958297798993776,
      0.0667879583097726,
      0.07004184849291119,
      0.06812201896831525,
      0.063322315715162,
      0.06936594258709959,
      0.06406073989221518,
      0.06906122473929939,
      0.0590147600007139,
      0.06257081771114381,
      0.06087879047432092,
      0.06487173444559817,
      0.06378549161096375,
      0.07070434359860586,
      0.06391867133905217,
      0.06376646362267235,
      0.06145931009648469,
      0.06137551586564372,
      0.06120187242773977,
      0.0611178379863143,
      0.05725991060042501,
      0.06408645947722866,
      0.06570647097218879,
      0.05996828383495135,
      0.0623419030729282,
      0.06189453981377751,
      0.05924606993082366,
      0.060850457474361665,
      0.0604382016898615,
      0.062163389582830374,
      0.061735199175555776,
      0.0660401015984119,
      0.06723228485181261,
      0.06779064402308585,
      0.07256109107545786,
      0.07146595765063696,
      0.0697162487961507,
      0.06705576661984038,
      0.07166906095405715,
      0.07399620698873838,
      0.06510053009352204,
      0.06760968555767638,
      0.0702563662236167,
      0.06932024764843561,
      0.06838270546205451,
      0.07083739273581534,
      0.07545176631348087,
      0.07822151834388352,
      0.07299752092743585,
      0.06950041557866501,
      0.07658042186303865,
      0.07279999345105927,
      0.07438334683686963,
      0.07086037867388864,
      0.06914714333171146,
      0.07211543705441815,
      0.0692336166066705,
      0.0763270696576871,
      0.06852868022143946,
      0.07112106961385702,
      0.07206653106859505,
      0.07358316994255398,
      0.06985928000203598,
      0.06916991779973596,
      0.07180121493277947,
      0.06925985836441644,
      0.06804957798879714,
      0.06879150505330123,
      0.06330985659287279,
      0.0707862857836325,
      0.05945141697640649,
      0.06609073781496519,
      0.07089764467092194,
      0.0676553002193748,
      0.06559218142090076,
      0.06550509754360496,
      0.06528505194681726,
      0.0682793520181498,
      0.06880585567817495,
      0.06885653491499188,
      0.0663912149093082,
      0.06688338525871415,
      0.06778144031745581,
      0.06600182830277958,
      0.06711423062212726,
      0.07239953301097626,
      0.06700736183371658,
      0.06929805014900711,
      0.0625477694577349,
      0.0629662223350818,
      0.06770535205928077,
      0.06439111319185829,
      0.06869749194047917,
      0.07114024985947404,
      0.07186287539193376,
      0.0714792752375088,
      0.0700805915376358,
      0.06570765740822106,
      0.06263967190294624,
      0.0683637734157289,
      0.06461889294261237,
      0.05736930168277441,
      0.061551507240832026,
      0.055017915525282374,
      0.058536599949787514,
      0.05976942436882262,
      0.06187243096817067,
      0.05678764840654643,
      0.05849231234671423,
      0.054317058419355885,
      0.05274508676394383,
      0.05196213529331272,
      0.050835035441340215,
      0.05478130111432287,
      0.06102195979555683,
      0.057445788858282124,
      0.05484056003498747,
      0.061318867895700194,
      0.057377507859186175,
      0.05392909891836676,
      0.055212216342852456,
      0.05354396257028496,
      0.051883700444835874,
      0.05139239321673343,
      0.055716970703067255,
      0.055507577850104114,
      0.05610619893167704,
      0.05543751570156804,
      0.05260795540952339,
      0.052372291382683414,
      0.04993258130115928,
      0.04699644113274548,
      0.049079269650048905,
      0.05301054602508484,
      0.043795501689875005,
      0.0470839716050945,
      0.04676038394778203,
      0.049704617427742064,
      0.05167234814933346,
      0.057236234864236936,
      0.05179734051676681,
      0.05037241073335947,
      0.048060604823849454,
      0.04833481755032805,
      0.05439287794870705,
      0.05046018751063376,
      0.0529771102231349,
      0.0530883126461005,
      0.05397607883437348,
      0.055426203592565615,
      0.053352847193595836,
      0.05476371295238277,
      0.051285032379554875,
      0.050493223005569805,
      0.056192995179920574,
      0.048788462609701794,
      0.05473782969856191,
      0.05646084485535878,
      0.05477783603591662,
      0.053112271941263486,
      0.05403404044452632,
      0.054578952593115,
      0.058130173831233915,
      0.05865252141316738,
      0.06180872334432355,
      0.05868679559754625,
      0.06344252308381777,
      0.0597714592665496,
      0.0615084238252387
    ]
  },
  "timestamp": "2025-11-05T23:52:16.692360"
}